tree
version=v4
num_class=1
num_tree_per_iteration=1
label_index=0
max_feature_idx=5
objective=regression
feature_names=Gender Age Price_per_Unit Product_Category_Beauty Product_Category_Clothing Product_Category_Electronics
feature_infos=[0:1] [18:64] [25:500] [0:1] [0:1] [0:1]
tree_sizes=2469 2537

Tree=0
num_leaves=29
num_cat=0
split_feature=2 2 4 0 2 0 2 3 2 2 0 3 5 4 3 2 3 2 3 2 2 0 5 4 3 3 2 3
split_gain=3.61228 2.98644 0.638422 2.79515 2.90239 1.04007 0.757327 1.03712 0.557828 0.557041 0.552288 2.55081 1.90898 0.844326 0.334259 0.259615 0.527473 0.66163 0.344559 0.230084 0.729097 0.19372 2.77686 1.87252 0.454493 0.242216 0.131119 0.00382722
threshold=175.00000000000003 400.00000000000006 1.0000000180025095e-35 1.0000000180025095e-35 40.000000000000007 1.0000000180025095e-35 27.500000000000004 1.0000000180025095e-35 40.000000000000007 27.500000000000004 1.0000000180025095e-35 1.0000000180025095e-35 1.0000000180025095e-35 1.0000000180025095e-35 1.0000000180025095e-35 27.500000000000004 1.0000000180025095e-35 40.000000000000007 1.0000000180025095e-35 40.000000000000007 27.500000000000004 1.0000000180025095e-35 1.0000000180025095e-35 1.0000000180025095e-35 1.0000000180025095e-35 1.0000000180025095e-35 40.000000000000007 1.0000000180025095e-35
decision_type=2 2 2 2 2 2 2 2 2 2 2 2 2 2 2 2 2 2 2 2 2 2 2 2 2 2 2 2
left_child=2 10 3 4 6 8 27 -8 9 -4 11 13 -12 -2 -6 18 17 -17 -5 20 -7 23 25 24 -3 -23 -18 -1
right_child=1 21 5 15 14 19 7 -9 -10 -11 12 -13 -14 -15 -16 16 26 -19 -20 -21 -22 22 -24 -25 -26 -27 -28 -29
leaf_value=2.5015685474488043 2.5213749985694887 2.4893749984502791 2.4961249984428284 2.4999556438384518 2.5169583317140738 2.5032370677487603 2.500291664923231 2.4848749986290932 2.4919583318382501 2.5053161752749893 2.5215610452446828 2.4947663036895835 2.5049612054742614 2.5091931800408798 2.5090416650970777 2.4831442292836994 2.4985288447829395 2.494041665395101 2.4916607127019335 2.503089284130505 2.5154702363695418 2.493446426987648 2.5157083317637441 2.5101336190618317 2.4991141295173893 2.5002916651715834 2.493284089673649 2.5023749987355299
leaf_weight=31 25 25 32 31 24 29 24 20 24 34 43 23 29 33 30 26 26 30 21 35 21 28 30 29 23 24 22 28
leaf_count=31 25 25 32 31 24 29 24 20 24 34 43 23 29 33 30 26 26 30 21 35 21 28 30 29 23 24 22 28
internal_value=2.5025 2.5067 2.49981 2.49846 2.50317 2.50223 2.49825 2.49328 2.49849 2.50086 2.51169 2.50886 2.51487 2.51444 2.51256 2.49372 2.49228 2.48898 2.49661 2.5062 2.50837 2.5019 2.50359 2.5001 2.49404 2.49661 2.49612 2.50195
internal_weight=0 312 488 313 157 175 103 44 90 66 153 81 72 58 54 156 104 56 52 85 50 159 82 77 48 52 48 59
internal_count=800 312 488 313 157 175 103 44 90 66 153 81 72 58 54 156 104 56 52 85 50 159 82 77 48 52 48 59
is_linear=0
shrinkage=1


Tree=1
num_leaves=28
num_cat=0
split_feature=1 5 1 0 1 1 5 1 1 0 1 1 0 1 5 1 1 1 1 5 0 5 0 1 4 1 1
split_gain=3.06129 2.61766 4.82141 2.36185 2.09444 3.42763 4.13597 3.56948 3.08124 1.94997 1.29125 1.3384 3.47408 1.77824 1.48896 1.21435 1.04575 0.906934 2.23768 1.00486 2.07641 0.937233 1.19199 0.769361 0.548713 0.25873 0.652081
threshold=54.500000000000007 1.0000000180025095e-35 57.500000000000007 1.0000000180025095e-35 45.500000000000007 38.500000000000007 1.0000000180025095e-35 41.500000000000007 34.500000000000007 1.0000000180025095e-35 47.500000000000007 50.500000000000007 1.0000000180025095e-35 52.500000000000007 1.0000000180025095e-35 59.500000000000007 42.500000000000007 23.500000000000004 19.500000000000004 1.0000000180025095e-35 1.0000000180025095e-35 1.0000000180025095e-35 1.0000000180025095e-35 59.500000000000007 1.0000000180025095e-35 31.500000000000004 27.500000000000004
decision_type=2 2 2 2 2 2 2 2 2 2 2 2 2 2 2 2 2 2 2 2 2 2 2 2 2 2 2
left_child=4 3 -3 15 5 8 9 -8 17 16 -6 12 -12 14 -13 -2 -7 18 -1 25 -21 22 -20 -5 -10 26 -19
right_child=1 2 -4 23 10 6 7 -9 24 -11 11 13 -14 -15 -16 -17 -18 19 21 20 -22 -23 -24 -25 -26 -27 -28
leaf_value=0.0081759591400623315 -0.010389972302843543 -0.017348833829164505 0.012595520404780784 -0.011286724090576173 0.014532442199878204 -0.013528040968454802 -0.035032483562827114 -0.006431701841453712 0.0095299086509606779 0.0092112277168780576 0.012234442532062531 0.0058271823894409909 -0.016259013440297999 -0.00010290928184986115 0.024889662638306619 0.0029734537881963394 0.0011082796946815822 -0.0028894926764463126 -0.011619319365574764 0.018820599257946016 -0.00084263456278833848 -0.016397809723149175 0.0038331704835096996 -0.023255862552544165 0.019716326743364335 -0.0031862687410377875 0.0063733411854819252
leaf_weight=30 34 20 41 25 39 26 20 24 39 32 20 21 23 36 20 34 23 38 26 25 29 23 24 29 20 41 38
leaf_count=30 34 20 41 25 39 26 20 24 39 32 20 21 23 36 20 34 23 38 26 25 29 23 24 29 20 41 38
internal_value=0 -0.00567929 0.0027777 -0.00990778 0.00168446 -3.19785e-05 -0.00709192 -0.0194321 0.00261815 -0.000388634 0.00662865 0.00405992 -0.00300624 0.00800597 0.015126 -0.00370826 -0.00665793 0.000386317 -0.00332017 0.00261888 0.00826071 -0.0080446 -0.00420212 -0.0177146 0.0129829 1.49506e-05 0.00174192
internal_weight=0 183 61 122 617 458 125 44 333 81 159 120 43 77 41 68 49 274 103 171 54 73 50 54 59 117 76
internal_count=800 183 61 122 617 458 125 44 333 81 159 120 43 77 41 68 49 274 103 171 54 73 50 54 59 117 76
is_linear=0
shrinkage=0.05


end of trees

feature_importances:
Age=16
Price_per_Unit=11
Gender=9
Product_Category_Beauty=8
Product_Category_Electronics=7
Product_Category_Clothing=4

parameters:
[boosting: gbdt]
[objective: regression]
[metric: rmse]
[tree_learner: serial]
[device_type: cpu]
[data: ]
[valid: ]
[num_iterations: 1000]
[learning_rate: 0.05]
[num_leaves: 31]
[num_threads: 0]
[deterministic: 0]
[force_col_wise: 0]
[force_row_wise: 0]
[histogram_pool_size: -1]
[max_depth: -1]
[min_data_in_leaf: 20]
[min_sum_hessian_in_leaf: 0.001]
[bagging_fraction: 1]
[pos_bagging_fraction: 1]
[neg_bagging_fraction: 1]
[bagging_freq: 0]
[bagging_seed: 3]
[feature_fraction: 0.9]
[feature_fraction_bynode: 1]
[feature_fraction_seed: 2]
[extra_trees: 0]
[extra_seed: 6]
[early_stopping_round: 0]
[first_metric_only: 0]
[max_delta_step: 0]
[lambda_l1: 0]
[lambda_l2: 0]
[linear_lambda: 0]
[min_gain_to_split: 0]
[drop_rate: 0.1]
[max_drop: 50]
[skip_drop: 0.5]
[xgboost_dart_mode: 0]
[uniform_drop: 0]
[drop_seed: 4]
[top_rate: 0.2]
[other_rate: 0.1]
[min_data_per_group: 100]
[max_cat_threshold: 32]
[cat_l2: 10]
[cat_smooth: 10]
[max_cat_to_onehot: 4]
[top_k: 20]
[monotone_constraints: ]
[monotone_constraints_method: basic]
[monotone_penalty: 0]
[feature_contri: ]
[forcedsplits_filename: ]
[refit_decay_rate: 0.9]
[cegb_tradeoff: 1]
[cegb_penalty_split: 0]
[cegb_penalty_feature_lazy: ]
[cegb_penalty_feature_coupled: ]
[path_smooth: 0]
[interaction_constraints: ]
[verbosity: -1]
[saved_feature_importance_type: 0]
[linear_tree: 0]
[max_bin: 255]
[max_bin_by_feature: ]
[min_data_in_bin: 3]
[bin_construct_sample_cnt: 200000]
[data_random_seed: 1]
[is_enable_sparse: 1]
[enable_bundle: 1]
[use_missing: 1]
[zero_as_missing: 0]
[feature_pre_filter: 1]
[pre_partition: 0]
[two_round: 0]
[header: 0]
[label_column: ]
[weight_column: ]
[group_column: ]
[ignore_column: ]
[categorical_feature: ]
[forcedbins_filename: ]
[precise_float_parser: 0]
[parser_config_file: ]
[objective_seed: 5]
[num_class: 1]
[is_unbalance: 0]
[scale_pos_weight: 1]
[sigmoid: 1]
[boost_from_average: 1]
[reg_sqrt: 0]
[alpha: 0.9]
[fair_c: 1]
[poisson_max_delta_step: 0.7]
[tweedie_variance_power: 1.5]
[lambdarank_truncation_level: 30]
[lambdarank_norm: 1]
[label_gain: ]
[lambdarank_position_bias_regularization: 0]
[eval_at: ]
[multi_error_top_k: 1]
[auc_mu_weights: ]
[num_machines: 1]
[local_listen_port: 12400]
[time_out: 120]
[machine_list_filename: ]
[machines: ]
[gpu_platform_id: -1]
[gpu_device_id: -1]
[gpu_use_dp: 0]
[num_gpu: 1]

end of parameters

pandas_categorical:[]
